-0.022656330103981263
0.051636230941341114
0.047966914405671135
-0.009081872706696541
-0.005485685397262319
-0.03767499170568146
-0.005263283720223527
0.0011379106511385316
-0.016269202885185477
-0.020353767332583338
0.010622246954024974
0.849348554800667
0.00912771783173377
-0.018952060799654915
0.017006925279214612
-0.006740024584626033
0.02674529826505821
1.1928541881118007
0.00717582301473223
-0.09005564638326104
-0.8998080027079052
0.018853981064467614
0.03273047625218313
0.0013078552781209533
-0.37169978140257914
0.006297138636141072
-0.002940371544061542
0.02384560905396404
0.02680428514749933
0.012860129365448638
-0.046175699204053414
-6.734862650335323E-4
0.003928484403230847
0.08378190242413068
0.04206226396204846
-0.0033554576465314894
2.1397729239987047E-4
0.020773858554815606
0.023336047291560347
-0.08743852356202998
0.02295242776780893
-0.04600226633697517
0.023696940365987126
0.034157812961000684
0.02699782617508192
0.033726352226095116
0.027003592173009308
-0.010280833658691075
0.03387433737387631
0.02418803487058959
8.479741507883431E-5
0.024053507279885415
0.011217300276292263
0.003502493399787054
-0.003587578734950016
-0.05134038512108383
-0.021716954414608483
-0.028541358215440526
0.0023600697517859688
-0.010982530921494075
-0.015643093006638315
0.10841568908923896
9.546824047202128E-4
0.02781766403003789
-0.006375162691675911
-0.04158235094269101
0.011159098668998097
-0.041658155628918406
0.01739068884462876
-0.04680610096257249
0.011892728686065768
0.01740645497470115
-0.03374939353812984
-0.04721993473395748
0.04530444311175659
-0.023986983447057627
0.07313144750102629
-0.015780903932557516
-0.04993825303215143
-0.0545011610653305
0.027403664455845533
0.015053451678933183
-0.003538853571574475
0.02692879004813492
-0.012711811349974384
0.028387948017971072
-0.0532503455756414
-0.022179853005365936
0.0011132526841191866
-0.008985864497511474
-0.04681383905058697
0.027334351592754994
-0.03361574254982188
-0.013903125026459228
0.04429320443173289
0.041938274865712076
0.016958638455484024
-0.018892877783120744
0.014324447026187423
-0.03298218734676491
0.006570280908562416
0.012981509206630173
0.07023319328204107
-0.02160123595283076
-0.01340182892572478
-0.004836945399743154
-0.037807166872103705
-0.05037411872502872
-0.01192861644067197
-0.014431292437730194
-0.031121780279793128
0.03859382262007013
0.016932205853293632
-0.022073534016715322
0.012154341525947642
0.018968658581317018
0.007585295066168733
0.01092712254307397
0.036338071342816344
0.027805099081545152
-0.027373466309277797
0.01855070091763335
0.017168666614176487
0.017021525029768222
0.0053059402126329385
-0.04265117207705606
0.061172432521606944
0.010641644669735963
-0.03785600586254501
0.02756661746383199
0.009243284601913728
-0.013388760193825733
-0.020221530559099695
-1.0914548880073536
0.006425770261975665
0.03982494950696834
0.049685645313952795
-8.077549775854422E-4
-0.05762060861188092
0.01376247298766362
-0.018286315856449277
0.0387514522290535
0.02791043793593072
-0.03797815307975013
0.024863790662857755
-0.03277312745379804
-0.01060046597011438
-0.016836113648457433
0.004324927416181226
-0.0874617859856589
0.026568251854320026
-0.02800297472270133
0.05596925201871525
0.0028131442295012705
0.0023409877744007997
0.0069056832962008955
0.01411441606333981
-0.017030652716454035
0.013046636594147279
0.009044456521192545
0.04153967586414707
0.02779586266545828
-0.0036611771008308084
-0.008290252416390805
0.04987361228400754
-0.01798388944780724
-0.01720680598294456
0.012884395236219268
-0.03621749988171477
-0.01095785870821431
0.00651192841053102
0.03067249985082241
-0.02760376618236187
-0.0024874856430114017
0.04352047133228155
-0.001630014934083261
0.018035088720479837
-0.0038947865257764475
-0.04962609025354067
0.007003900824389418
0.04933804396582247
0.07365437283423834
0.015887031501074792
-0.0026930997824775537
-0.0260726714240257
0.009141896828095143
-7.604204951128266E-4
0.008038045246805969
-0.010392997639857944
0.022705423473542298
-0.022103762182978486
-0.018513742818550036
0.005448065931099619
0.001762649617758801
0.029514350936301854
0.011196103864706897
-0.011897547174004066
8.53152111623563E-4
-0.001469283076951207
0.034741163222376165
-0.007484693301216268
0.010768533918999606
0.021433101015740964
0.06735296450992853
-0.017846785034387493
-0.05276194627114307
0.056193608295946995
0.005732871770681886
0.23547266037077594
-0.028559388249649403
-0.0058665437421649095
0.04945972304648984
-0.01589829881489144
-0.00930793022225194
-0.004900663983700822
-0.021590843874577784
1.2158278424021609E-4
-0.006450697662025341
-0.021088928841837096
0.022950687343981653
-0.03469559309030616
0.018948117848187944
0.004063189833675804
-0.0137473755360085
-0.0022528919838528507
-0.04618429147782977
0.07726544676906281
-0.04235962930526993
0.6401252610436132
0.0019487087340143263
0.06751485930416765
0.012258342054571514
-0.02294350024081353
0.02260512689484625
-0.014134275655482111
0.016186827824755445
0.02927674057784254
0.04184426483866853
0.017165633163522015
-0.043475087107497576
-0.03473234441062992
0.054432279739238504
0.01178697119544306
-0.00610350712620832
-0.03063726019220637
-1.3306881716642283
0.012487459267946872
-0.021530108578243726
-0.00796628512859637
-0.01205696148426705
-0.0038515087677804985
-0.008562260094243355
-0.0020696402574817826
0.02908260403330089
-0.03748555401680801
0.036603539490122725
-0.004012648464965189
-0.0014285941534369464
0.05123454908241376
0.03238032352407527
0.03154192985622804
0.007308746554724275
0.7831882608225097
0.011180947493070503
-0.02328954954776609
0.03311572830210379
-0.013734608345652405
0.07194433607675314
-0.02282091072916175
0.001134969384567657
-0.05021931523755107
-0.04739161023789777
-0.010438231558180945
0.013286023185725521
0.02060704207757583
-0.0060561663998266076
0.006785586380407886
0.06010984735094557
0.04548141626244085
-0.3946190055860518
-0.0043813997555453565
-0.011654686268458399
-0.014199786961963017
0.01110109736905239
0.01601359357434907
0.016308988330390416
-0.008642339414333457
-2.5181277976261886E-4
-0.04629811491405143
0.02356130197146438
-0.01928428401039002